digraph Tree {
node [shape=box] ;
0 [label="X[0] <= 5.45\ngini = 0.665\nsamples = 112\nvalue = [37, 34, 41]"] ;
1 [label="X[1] <= 2.75\ngini = 0.193\nsamples = 38\nvalue = [34, 3, 1]"] ;
0 -> 1 [labeldistance=2.5, labelangle=45, headlabel="True"] ;
2 [label="X[0] <= 4.7\ngini = 0.56\nsamples = 5\nvalue = [1, 3, 1]"] ;
1 -> 2 ;
3 [label="gini = 0.0\nsamples = 1\nvalue = [1, 0, 0]"] ;
2 -> 3 ;
4 [label="X[0] <= 4.95\ngini = 0.375\nsamples = 4\nvalue = [0, 3, 1]"] ;
2 -> 4 ;
5 [label="gini = 0.5\nsamples = 2\nvalue = [0, 1, 1]"] ;
4 -> 5 ;
6 [label="gini = 0.0\nsamples = 2\nvalue = [0, 2, 0]"] ;
4 -> 6 ;
7 [label="gini = 0.0\nsamples = 33\nvalue = [33, 0, 0]"] ;
1 -> 7 ;
8 [label="X[0] <= 5.95\ngini = 0.531\nsamples = 74\nvalue = [3, 31, 40]"] ;
0 -> 8 [labeldistance=2.5, labelangle=-45, headlabel="False"] ;
9 [label="X[1] <= 3.35\ngini = 0.442\nsamples = 25\nvalue = [3, 18, 4]"] ;
8 -> 9 ;
10 [label="X[0] <= 5.75\ngini = 0.298\nsamples = 22\nvalue = [0, 18, 4]"] ;
9 -> 10 ;
11 [label="X[0] <= 5.65\ngini = 0.133\nsamples = 14\nvalue = [0, 13, 1]"] ;
10 -> 11 ;
12 [label="gini = 0.0\nsamples = 8\nvalue = [0, 8, 0]"] ;
11 -> 12 ;
13 [label="X[1] <= 2.55\ngini = 0.278\nsamples = 6\nvalue = [0, 5, 1]"] ;
11 -> 13 ;
14 [label="gini = 0.0\nsamples = 1\nvalue = [0, 0, 1]"] ;
13 -> 14 ;
15 [label="gini = 0.0\nsamples = 5\nvalue = [0, 5, 0]"] ;
13 -> 15 ;
16 [label="X[1] <= 2.65\ngini = 0.469\nsamples = 8\nvalue = [0, 5, 3]"] ;
10 -> 16 ;
17 [label="gini = 0.0\nsamples = 1\nvalue = [0, 1, 0]"] ;
16 -> 17 ;
18 [label="X[1] <= 3.1\ngini = 0.49\nsamples = 7\nvalue = [0, 4, 3]"] ;
16 -> 18 ;
19 [label="X[0] <= 5.85\ngini = 0.5\nsamples = 6\nvalue = [0, 3, 3]"] ;
18 -> 19 ;
20 [label="gini = 0.5\nsamples = 4\nvalue = [0, 2, 2]"] ;
19 -> 20 ;
21 [label="gini = 0.5\nsamples = 2\nvalue = [0, 1, 1]"] ;
19 -> 21 ;
22 [label="gini = 0.0\nsamples = 1\nvalue = [0, 1, 0]"] ;
18 -> 22 ;
23 [label="gini = 0.0\nsamples = 3\nvalue = [3, 0, 0]"] ;
9 -> 23 ;
24 [label="X[0] <= 7.05\ngini = 0.39\nsamples = 49\nvalue = [0, 13, 36]"] ;
8 -> 24 ;
25 [label="X[0] <= 6.95\ngini = 0.45\nsamples = 38\nvalue = [0, 13, 25]"] ;
24 -> 25 ;
26 [label="X[1] <= 2.4\ngini = 0.438\nsamples = 37\nvalue = [0, 12, 25]"] ;
25 -> 26 ;
27 [label="gini = 0.444\nsamples = 3\nvalue = [0, 2, 1]"] ;
26 -> 27 ;
28 [label="X[0] <= 6.15\ngini = 0.415\nsamples = 34\nvalue = [0, 10, 24]"] ;
26 -> 28 ;
29 [label="gini = 0.444\nsamples = 3\nvalue = [0, 2, 1]"] ;
28 -> 29 ;
30 [label="X[1] <= 3.15\ngini = 0.383\nsamples = 31\nvalue = [0, 8, 23]"] ;
28 -> 30 ;
31 [label="X[0] <= 6.55\ngini = 0.434\nsamples = 22\nvalue = [0, 7, 15]"] ;
30 -> 31 ;
32 [label="X[1] <= 2.6\ngini = 0.298\nsamples = 11\nvalue = [0, 2, 9]"] ;
31 -> 32 ;
33 [label="gini = 0.5\nsamples = 2\nvalue = [0, 1, 1]"] ;
32 -> 33 ;
34 [label="X[1] <= 2.85\ngini = 0.198\nsamples = 9\nvalue = [0, 1, 8]"] ;
32 -> 34 ;
35 [label="gini = 0.0\nsamples = 4\nvalue = [0, 0, 4]"] ;
34 -> 35 ;
36 [label="X[1] <= 2.95\ngini = 0.32\nsamples = 5\nvalue = [0, 1, 4]"] ;
34 -> 36 ;
37 [label="gini = 0.5\nsamples = 2\nvalue = [0, 1, 1]"] ;
36 -> 37 ;
38 [label="gini = 0.0\nsamples = 3\nvalue = [0, 0, 3]"] ;
36 -> 38 ;
39 [label="X[0] <= 6.65\ngini = 0.496\nsamples = 11\nvalue = [0, 5, 6]"] ;
31 -> 39 ;
40 [label="gini = 0.0\nsamples = 2\nvalue = [0, 2, 0]"] ;
39 -> 40 ;
41 [label="X[1] <= 2.75\ngini = 0.444\nsamples = 9\nvalue = [0, 3, 6]"] ;
39 -> 41 ;
42 [label="gini = 0.0\nsamples = 1\nvalue = [0, 0, 1]"] ;
41 -> 42 ;
43 [label="X[0] <= 6.75\ngini = 0.469\nsamples = 8\nvalue = [0, 3, 5]"] ;
41 -> 43 ;
44 [label="X[1] <= 3.05\ngini = 0.5\nsamples = 4\nvalue = [0, 2, 2]"] ;
43 -> 44 ;
45 [label="gini = 0.5\nsamples = 2\nvalue = [0, 1, 1]"] ;
44 -> 45 ;
46 [label="gini = 0.5\nsamples = 2\nvalue = [0, 1, 1]"] ;
44 -> 46 ;
47 [label="X[0] <= 6.85\ngini = 0.375\nsamples = 4\nvalue = [0, 1, 3]"] ;
43 -> 47 ;
48 [label="gini = 0.0\nsamples = 1\nvalue = [0, 0, 1]"] ;
47 -> 48 ;
49 [label="gini = 0.444\nsamples = 3\nvalue = [0, 1, 2]"] ;
47 -> 49 ;
50 [label="X[0] <= 6.35\ngini = 0.198\nsamples = 9\nvalue = [0, 1, 8]"] ;
30 -> 50 ;
51 [label="gini = 0.444\nsamples = 3\nvalue = [0, 1, 2]"] ;
50 -> 51 ;
52 [label="gini = 0.0\nsamples = 6\nvalue = [0, 0, 6]"] ;
50 -> 52 ;
53 [label="gini = 0.0\nsamples = 1\nvalue = [0, 1, 0]"] ;
25 -> 53 ;
54 [label="gini = 0.0\nsamples = 11\nvalue = [0, 0, 11]"] ;
24 -> 54 ;
}